digraph Tree {
node [shape=box] ;
0 [label="X[7] <= 0.5\nmse = 1428.515\nsamples = 1877414\nvalue = 75.021"] ;
1 [label="X[15] <= 196.5\nmse = 1560.114\nsamples = 1574569\nvalue = 71.366"] ;
0 -> 1 [labeldistance=2.5, labelangle=45, headlabel="True"] ;
2 [label="X[16] <= 0.5\nmse = 1813.234\nsamples = 992822\nvalue = 65.444"] ;
1 -> 2 ;
3 [label="X[18] <= 890.5\nmse = 2038.743\nsamples = 317991\nvalue = 54.767"] ;
2 -> 3 ;
4 [label="X[8] <= 87.0\nmse = 2121.401\nsamples = 181748\nvalue = 46.914"] ;
3 -> 4 ;
5 [label="X[2] <= 14.0\nmse = 2123.066\nsamples = 142427\nvalue = 51.331"] ;
4 -> 5 ;
6 [label="(...)"] ;
5 -> 6 ;
4415 [label="(...)"] ;
5 -> 4415 ;
4494 [label="X[12] <= 4.0\nmse = 1788.698\nsamples = 39321\nvalue = 30.914"] ;
4 -> 4494 ;
4495 [label="(...)"] ;
4494 -> 4495 ;
15270 [label="(...)"] ;
4494 -> 15270 ;
15299 [label="X[0] <= 22.5\nmse = 1736.464\nsamples = 136243\nvalue = 65.243"] ;
3 -> 15299 ;
15300 [label="X[13] <= 0.5\nmse = 1876.125\nsamples = 109930\nvalue = 59.962"] ;
15299 -> 15300 ;
15301 [label="(...)"] ;
15300 -> 15301 ;
17228 [label="(...)"] ;
15300 -> 17228 ;
22259 [label="X[3] <= 57.0\nmse = 549.877\nsamples = 26313\nvalue = 87.302"] ;
15299 -> 22259 ;
22260 [label="(...)"] ;
22259 -> 22260 ;
22265 [label="(...)"] ;
22259 -> 22265 ;
25746 [label="X[6] <= 0.5\nmse = 1627.94\nsamples = 674831\nvalue = 70.475"] ;
2 -> 25746 ;
25747 [label="X[2] <= 22.0\nmse = 2011.668\nsamples = 183704\nvalue = 58.057"] ;
25746 -> 25747 ;
25748 [label="X[136] <= 0.5\nmse = 1925.367\nsamples = 166160\nvalue = 61.061"] ;
25747 -> 25748 ;
25749 [label="(...)"] ;
25748 -> 25749 ;
29990 [label="(...)"] ;
25748 -> 29990 ;
30003 [label="X[146] <= 0.5\nmse = 1934.579\nsamples = 17544\nvalue = 29.614"] ;
25747 -> 30003 ;
30004 [label="(...)"] ;
30003 -> 30004 ;
30037 [label="(...)"] ;
30003 -> 30037 ;
30048 [label="X[2] <= 26.0\nmse = 1405.158\nsamples = 491127\nvalue = 75.12"] ;
25746 -> 30048 ;
30049 [label="X[12] <= 5.5\nmse = 1339.986\nsamples = 469162\nvalue = 76.27"] ;
30048 -> 30049 ;
30050 [label="(...)"] ;
30049 -> 30050 ;
37673 [label="(...)"] ;
30049 -> 37673 ;
37738 [label="X[14] <= 50.0\nmse = 2165.087\nsamples = 21965\nvalue = 50.546"] ;
30048 -> 37738 ;
37739 [label="(...)"] ;
37738 -> 37739 ;
37794 [label="(...)"] ;
37738 -> 37794 ;
37813 [label="X[2] <= 34.0\nmse = 966.114\nsamples = 581747\nvalue = 81.474"] ;
1 -> 37813 ;
37814 [label="X[6] <= 0.5\nmse = 896.541\nsamples = 563654\nvalue = 82.534"] ;
37813 -> 37814 ;
37815 [label="X[2] <= 5.5\nmse = 1375.51\nsamples = 129028\nvalue = 74.922"] ;
37814 -> 37815 ;
37816 [label="X[2] <= 0.5\nmse = 1133.934\nsamples = 91048\nvalue = 78.954"] ;
37815 -> 37816 ;
37817 [label="(...)"] ;
37816 -> 37817 ;
37818 [label="(...)"] ;
37816 -> 37818 ;
38395 [label="X[0] <= 15.5\nmse = 1822.205\nsamples = 37980\nvalue = 65.255"] ;
37815 -> 38395 ;
38396 [label="(...)"] ;
38395 -> 38396 ;
38539 [label="(...)"] ;
38395 -> 38539 ;
38610 [label="X[8] <= 11.5\nmse = 732.044\nsamples = 434626\nvalue = 84.793"] ;
37814 -> 38610 ;
38611 [label="X[2] <= 4.5\nmse = 678.325\nsamples = 391866\nvalue = 86.194"] ;
38610 -> 38611 ;
38612 [label="(...)"] ;
38611 -> 38612 ;
42821 [label="(...)"] ;
38611 -> 42821 ;
43500 [label="X[54] <= 0.5\nmse = 1041.65\nsamples = 42760\nvalue = 71.959"] ;
38610 -> 43500 ;
43501 [label="(...)"] ;
43500 -> 43501 ;
50312 [label="(...)"] ;
43500 -> 50312 ;
50315 [label="X[6] <= 0.5\nmse = 2008.068\nsamples = 18093\nvalue = 48.452"] ;
37813 -> 50315 ;
50316 [label="X[15] <= 484.0\nmse = 1797.325\nsamples = 7645\nvalue = 27.992"] ;
50315 -> 50316 ;
50317 [label="X[18] <= 1073.5\nmse = 2071.9\nsamples = 3341\nvalue = 49.43"] ;
50316 -> 50317 ;
50318 [label="(...)"] ;
50317 -> 50318 ;
50327 [label="(...)"] ;
50317 -> 50327 ;
50334 [label="X[12] <= 6.0\nmse = 950.495\nsamples = 4304\nvalue = 11.351"] ;
50316 -> 50334 ;
50335 [label="(...)"] ;
50334 -> 50335 ;
50338 [label="(...)"] ;
50334 -> 50338 ;
50339 [label="X[0] <= 9.0\nmse = 1631.865\nsamples = 10448\nvalue = 63.422"] ;
50315 -> 50339 ;
50340 [label="X[15] <= 649.5\nmse = 1276.741\nsamples = 1276\nvalue = 26.31"] ;
50339 -> 50340 ;
50341 [label="(...)"] ;
50340 -> 50341 ;
50344 [label="(...)"] ;
50340 -> 50344 ;
50345 [label="X[24] <= 0.5\nmse = 1463.006\nsamples = 9172\nvalue = 68.585"] ;
50339 -> 50345 ;
50346 [label="(...)"] ;
50345 -> 50346 ;
50373 [label="(...)"] ;
50345 -> 50373 ;
50394 [label="X[17] <= 397.0\nmse = 313.852\nsamples = 302845\nvalue = 94.021"] ;
0 -> 50394 [labeldistance=2.5, labelangle=-45, headlabel="False"] ;
50395 [label="X[118] <= 0.5\nmse = 264.095\nsamples = 291362\nvalue = 94.531"] ;
50394 -> 50395 ;
50396 [label="X[55] <= 0.5\nmse = 249.821\nsamples = 290087\nvalue = 94.685"] ;
50395 -> 50396 ;
50397 [label="X[14] <= 725.0\nmse = 215.719\nsamples = 282403\nvalue = 95.05"] ;
50396 -> 50397 ;
50398 [label="X[74] <= 0.5\nmse = 186.176\nsamples = 277304\nvalue = 95.352"] ;
50397 -> 50398 ;
50399 [label="(...)"] ;
50398 -> 50399 ;
54034 [label="(...)"] ;
50398 -> 54034 ;
54037 [label="X[150] <= 0.5\nmse = 1547.562\nsamples = 5099\nvalue = 78.623"] ;
50397 -> 54037 ;
54038 [label="(...)"] ;
54037 -> 54038 ;
54061 [label="(...)"] ;
54037 -> 54061 ;
54062 [label="X[6] <= 0.5\nmse = 1317.78\nsamples = 7684\nvalue = 81.251"] ;
50396 -> 54062 ;
54063 [label="mse = 0.0\nsamples = 508\nvalue = 0.0"] ;
54062 -> 54063 ;
54064 [label="X[19] <= 0.5\nmse = 910.643\nsamples = 7176\nvalue = 87.002"] ;
54062 -> 54064 ;
54065 [label="(...)"] ;
54064 -> 54065 ;
54690 [label="(...)"] ;
54064 -> 54690 ;
54691 [label="X[15] <= 500.0\nmse = 2288.688\nsamples = 1275\nvalue = 59.638"] ;
50395 -> 54691 ;
54692 [label="mse = 0.0\nsamples = 499\nvalue = 0.0"] ;
54691 -> 54692 ;
54693 [label="X[15] <= 1450.0\nmse = 2.654\nsamples = 776\nvalue = 97.987"] ;
54691 -> 54693 ;
54694 [label="X[0] <= 25.5\nmse = 1.0\nsamples = 516\nvalue = 98.988"] ;
54693 -> 54694 ;
54695 [label="(...)"] ;
54694 -> 54695 ;
54696 [label="(...)"] ;
54694 -> 54696 ;
54697 [label="mse = 0.0\nsamples = 260\nvalue = 96.0"] ;
54693 -> 54697 ;
54698 [label="X[17] <= 422.5\nmse = 1401.959\nsamples = 11483\nvalue = 81.068"] ;
50394 -> 54698 ;
54699 [label="X[3] <= 137.5\nmse = 2320.185\nsamples = 2502\nvalue = 47.988"] ;
54698 -> 54699 ;
54700 [label="X[146] <= 0.5\nmse = 3.695\nsamples = 999\nvalue = 97.754"] ;
54699 -> 54700 ;
54701 [label="X[0] <= 18.5\nmse = 2.674\nsamples = 748\nvalue = 97.0"] ;
54700 -> 54701 ;
54702 [label="(...)"] ;
54701 -> 54702 ;
54703 [label="(...)"] ;
54701 -> 54703 ;
54706 [label="mse = 0.0\nsamples = 251\nvalue = 100.0"] ;
54700 -> 54706 ;
54707 [label="X[134] <= 0.5\nmse = 1119.603\nsamples = 1503\nvalue = 14.91"] ;
54699 -> 54707 ;
54708 [label="mse = 0.0\nsamples = 1254\nvalue = 0.0"] ;
54707 -> 54708 ;
54709 [label="mse = 0.0\nsamples = 249\nvalue = 90.0"] ;
54707 -> 54709 ;
54710 [label="X[0] <= 3.5\nmse = 756.378\nsamples = 8981\nvalue = 90.283"] ;
54698 -> 54710 ;
54711 [label="mse = 0.0\nsamples = 261\nvalue = 0.0"] ;
54710 -> 54711 ;
54712 [label="X[11] <= 5.0\nmse = 527.745\nsamples = 8720\nvalue = 92.985"] ;
54710 -> 54712 ;
54713 [label="mse = 0.0\nsamples = 247\nvalue = 0.0"] ;
54712 -> 54713 ;
54714 [label="X[33] <= 0.5\nmse = 283.73\nsamples = 8473\nvalue = 95.696"] ;
54712 -> 54714 ;
54715 [label="(...)"] ;
54714 -> 54715 ;
54746 [label="(...)"] ;
54714 -> 54746 ;
}
